<?xml version="1.0"?>
<opencv_storage>
<cascade>
  <stageType>BOOST</stageType>
  <featureType>HAAR</featureType>
  <height>50</height>
  <width>50</width>
  <stageParams>
    <boostType>GAB</boostType>
    <minHitRate>9.9900001287460327e-01</minHitRate>
    <maxFalseAlarm>5.0000000000000000e-01</maxFalseAlarm>
    <weightTrimRate>9.4999999999999996e-01</weightTrimRate>
    <maxDepth>1</maxDepth>
    <maxWeakCount>100</maxWeakCount></stageParams>
  <featureParams>
    <maxCatCount>0</maxCatCount>
    <featSize>1</featSize>
    <mode>BASIC</mode></featureParams>
  <stageNum>5</stageNum>
  <stages>
    <!-- stage 0 -->
    <_>
      <maxWeakCount>14</maxWeakCount>
      <stageThreshold>-9.4776093959808350e-01</stageThreshold>
      <weakClassifiers>
        <_>
          <internalNodes>
            0 -1 21 2.6048973202705383e-02</internalNodes>
          <leafValues>
            3.9278131723403931e-01 -8.2887703180313110e-01</leafValues></_>
        <_>
          <internalNodes>
            0 -1 19 -2.5932759046554565e-02</internalNodes>
          <leafValues>
            -7.9091840982437134e-01 1.8031994998455048e-01</leafValues></_>
        <_>
          <internalNodes>
            0 -1 49 -2.2048944607377052e-02</internalNodes>
          <leafValues>
            -7.8705841302871704e-01 1.5184922516345978e-01</leafValues></_>
        <_>
          <internalNodes>
            0 -1 35 2.0144328474998474e-02</internalNodes>
          <leafValues>
            -2.1606756746768951e-01 6.7673289775848389e-01</leafValues></_>
        <_>
          <internalNodes>
            0 -1 81 -8.7748654186725616e-03</internalNodes>
          <leafValues>
            -8.4268301725387573e-01 1.6143618524074554e-01</leafValues></_>
        <_>
          <internalNodes>
            0 -1 58 -9.2883855104446411e-03</internalNodes>
          <leafValues>
            -9.1913396120071411e-01 7.7955849468708038e-02</leafValues></_>
        <_>
          <internalNodes>
            0 -1 34 -1.1844871565699577e-02</internalNodes>
          <leafValues>
            -7.0467156171798706e-01 1.2988215684890747e-01</leafValues></_>
        <_>
          <internalNodes>
            0 -1 33 1.6728118062019348e-02</internalNodes>
          <leafValues>
            1.4903138577938080e-01 -6.9820046424865723e-01</leafValues></_>
        <_>
          <internalNodes>
            0 -1 50 6.2924766098149121e-05</internalNodes>
          <leafValues>
            -2.9597827792167664e-01 4.0118920803070068e-01</leafValues></_>
        <_>
          <internalNodes>
            0 -1 57 3.7356290966272354e-02</internalNodes>
          <leafValues>
            1.0173312574625015e-01 -8.8804215192794800e-01</leafValues></_>
        <_>
          <internalNodes>
            0 -1 60 1.0861117334570736e-04</internalNodes>
          <leafValues>
            -1.8678894639015198e-01 5.8918762207031250e-01</leafValues></_>
        <_>
          <internalNodes>
            0 -1 27 -2.5143779814243317e-02</internalNodes>
          <leafValues>
            -8.6183685064315796e-01 1.1128524690866470e-01</leafValues></_>
        <_>
          <internalNodes>
            0 -1 4 -1.1705423239618540e-03</internalNodes>
          <leafValues>
            5.2013289928436279e-01 -2.1488310396671295e-01</leafValues></_>
        <_>
          <internalNodes>
            0 -1 46 9.5775270892772824e-05</internalNodes>
          <leafValues>
            -1.9796481728553772e-01 4.3836537003517151e-01</leafValues></_></weakClassifiers></_>
    <!-- stage 1 -->
    <_>
      <maxWeakCount>17</maxWeakCount>
      <stageThreshold>-8.3895653486251831e-01</stageThreshold>
      <weakClassifiers>
        <_>
          <internalNodes>
            0 -1 43 2.6628974825143814e-02</internalNodes>
          <leafValues>
            3.4550371766090393e-01 -9.1735535860061646e-01</leafValues></_>
        <_>
          <internalNodes>
            0 -1 72 9.6790026873350143e-03</internalNodes>
          <leafValues>
            1.3123111426830292e-01 -9.3020427227020264e-01</leafValues></_>
        <_>
          <internalNodes>
            0 -1 61 2.8321158606559038e-03</internalNodes>
          <leafValues>
            -2.5062438845634460e-01 4.4468018412590027e-01</leafValues></_>
        <_>
          <internalNodes>
            0 -1 54 3.4952699206769466e-04</internalNodes>
          <leafValues>
            -2.8830221295356750e-01 3.5616248846054077e-01</leafValues></_>
        <_>
          <internalNodes>
            0 -1 30 1.3017559424042702e-02</internalNodes>
          <leafValues>
            9.8080769181251526e-02 -8.1639891862869263e-01</leafValues></_>
        <_>
          <internalNodes>
            0 -1 25 -1.4168567955493927e-02</internalNodes>
          <leafValues>
            -6.4506649971008301e-01 1.1908103525638580e-01</leafValues></_>
        <_>
          <internalNodes>
            0 -1 56 -1.0010054393205792e-04</internalNodes>
          <leafValues>
            3.8371369242668152e-01 -2.4319750070571899e-01</leafValues></_>
        <_>
          <internalNodes>
            0 -1 79 7.0542657340411097e-05</internalNodes>
          <leafValues>
            -1.4556279778480530e-01 4.8347225785255432e-01</leafValues></_>
        <_>
          <internalNodes>
            0 -1 69 2.5563244707882404e-03</internalNodes>
          <leafValues>
            8.4850564599037170e-02 -8.6182379722595215e-01</leafValues></_>
        <_>
          <internalNodes>
            0 -1 84 1.7131813801825047e-03</internalNodes>
          <leafValues>
            9.6746467053890228e-02 -7.7004081010818481e-01</leafValues></_>
        <_>
          <internalNodes>
            0 -1 74 1.0028369724750519e-03</internalNodes>
          <leafValues>
            -1.7373391985893250e-01 5.6916177272796631e-01</leafValues></_>
        <_>
          <internalNodes>
            0 -1 32 5.1431041210889816e-02</internalNodes>
          <leafValues>
            1.3153868913650513e-01 -7.7867555618286133e-01</leafValues></_>
        <_>
          <internalNodes>
            0 -1 67 -1.3404630124568939e-02</internalNodes>
          <leafValues>
            -6.5344041585922241e-01 1.1049808561801910e-01</leafValues></_>
        <_>
          <internalNodes>
            0 -1 10 6.2993704341351986e-04</internalNodes>
          <leafValues>
            -1.8530640006065369e-01 5.8423554897308350e-01</leafValues></_>
        <_>
          <internalNodes>
            0 -1 66 -9.5239673100877553e-05</internalNodes>
          <leafValues>
            4.6613579988479614e-01 -1.9188347458839417e-01</leafValues></_>
        <_>
          <internalNodes>
            0 -1 3 -7.6098955469205976e-04</internalNodes>
          <leafValues>
            4.8391371965408325e-01 -1.8963496387004852e-01</leafValues></_>
        <_>
          <internalNodes>
            0 -1 7 -6.2222243286669254e-04</internalNodes>
          <leafValues>
            6.2265604734420776e-01 -1.5100494027137756e-01</leafValues></_></weakClassifiers></_>
    <!-- stage 2 -->
    <_>
      <maxWeakCount>24</maxWeakCount>
      <stageThreshold>-1.0521115064620972e+00</stageThreshold>
      <weakClassifiers>
        <_>
          <internalNodes>
            0 -1 51 -2.1472305525094271e-03</internalNodes>
          <leafValues>
            -8.2857143878936768e-01 3.2575249671936035e-01</leafValues></_>
        <_>
          <internalNodes>
            0 -1 39 2.7111699804663658e-02</internalNodes>
          <leafValues>
            -1.5712608397006989e-01 5.9600025415420532e-01</leafValues></_>
        <_>
          <internalNodes>
            0 -1 15 3.2697238028049469e-02</internalNodes>
          <leafValues>
            9.0427935123443604e-02 -9.3321907520294189e-01</leafValues></_>
        <_>
          <internalNodes>
            0 -1 89 -4.7950661974027753e-04</internalNodes>
          <leafValues>
            3.6928310990333557e-01 -2.3809275031089783e-01</leafValues></_>
        <_>
          <internalNodes>
            0 -1 62 -4.6968380920588970e-03</internalNodes>
          <leafValues>
            4.5273315906524658e-01 -2.1281974017620087e-01</leafValues></_>
        <_>
          <internalNodes>
            0 -1 28 -1.9337907433509827e-03</internalNodes>
          <leafValues>
            -7.2090816497802734e-01 1.4231579005718231e-01</leafValues></_>
        <_>
          <internalNodes>
            0 -1 16 5.3478620247915387e-04</internalNodes>
          <leafValues>
            -2.2631935775279999e-01 4.1179755330085754e-01</leafValues></_>
        <_>
          <internalNodes>
            0 -1 13 -2.2463142522610724e-04</internalNodes>
          <leafValues>
            4.6208226680755615e-01 -1.3681899011135101e-01</leafValues></_>
        <_>
          <internalNodes>
            0 -1 29 1.1563997250050306e-03</internalNodes>
          <leafValues>
            7.3096215724945068e-02 -7.8152567148208618e-01</leafValues></_>
        <_>
          <internalNodes>
            0 -1 12 3.5987468436360359e-03</internalNodes>
          <leafValues>
            -1.3615110516548157e-01 6.2363529205322266e-01</leafValues></_>
        <_>
          <internalNodes>
            0 -1 5 2.6925285346806049e-03</internalNodes>
          <leafValues>
            -9.1254621744155884e-02 6.3950151205062866e-01</leafValues></_>
        <_>
          <internalNodes>
            0 -1 83 -6.1652637668885291e-05</internalNodes>
          <leafValues>
            4.0935114026069641e-01 -1.7547918856143951e-01</leafValues></_>
        <_>
          <internalNodes>
            0 -1 22 2.0887175924144685e-04</internalNodes>
          <leafValues>
            -1.5954729914665222e-01 5.0068700313568115e-01</leafValues></_>
        <_>
          <internalNodes>
            0 -1 55 -1.7148872138932347e-03</internalNodes>
          <leafValues>
            -8.6236059665679932e-01 9.1072514653205872e-02</leafValues></_>
        <_>
          <internalNodes>
            0 -1 2 -4.8377988860011101e-03</internalNodes>
          <leafValues>
            5.0672692060470581e-01 -1.6992622613906860e-01</leafValues></_>
        <_>
          <internalNodes>
            0 -1 73 2.6437628548592329e-04</internalNodes>
          <leafValues>
            -1.7136916518211365e-01 4.3302565813064575e-01</leafValues></_>
        <_>
          <internalNodes>
            0 -1 41 1.3097985647618771e-03</internalNodes>
          <leafValues>
            1.0075854510068893e-01 -8.4772741794586182e-01</leafValues></_>
        <_>
          <internalNodes>
            0 -1 1 1.5984144993126392e-03</internalNodes>
          <leafValues>
            -2.1432259678840637e-01 3.9038562774658203e-01</leafValues></_>
        <_>
          <internalNodes>
            0 -1 45 -7.3061208240687847e-05</internalNodes>
          <leafValues>
            4.1104781627655029e-01 -1.9820405542850494e-01</leafValues></_>
        <_>
          <internalNodes>
            0 -1 40 6.9568894105032086e-05</internalNodes>
          <leafValues>
            -1.6486918926239014e-01 5.1607650518417358e-01</leafValues></_>
        <_>
          <internalNodes>
            0 -1 0 -6.8891327828168869e-03</internalNodes>
          <leafValues>
            5.6139546632766724e-01 -1.3561739027500153e-01</leafValues></_>
        <_>
          <internalNodes>
            0 -1 42 1.5502385795116425e-02</internalNodes>
          <leafValues>
            1.2061228603124619e-01 -6.9360399246215820e-01</leafValues></_>
        <_>
          <internalNodes>
            0 -1 14 -1.2403242290019989e-01</internalNodes>
          <leafValues>
            -4.5662495493888855e-01 1.7195822298526764e-01</leafValues></_>
        <_>
          <internalNodes>
            0 -1 31 -4.2605453927535564e-05</internalNodes>
          <leafValues>
            4.0399289131164551e-01 -2.1074008941650391e-01</leafValues></_></weakClassifiers></_>
    <!-- stage 3 -->
    <_>
      <maxWeakCount>14</maxWeakCount>
      <stageThreshold>-1.1643292903900146e+00</stageThreshold>
      <weakClassifiers>
        <_>
          <internalNodes>
            0 -1 18 2.4063317105174065e-03</internalNodes>
          <leafValues>
            3.9211469888687134e-01 -7.1707314252853394e-01</leafValues></_>
        <_>
          <internalNodes>
            0 -1 48 -1.2722576502710581e-03</internalNodes>
          <leafValues>
            -6.8501132726669312e-01 1.8111534416675568e-01</leafValues></_>
        <_>
          <internalNodes>
            0 -1 65 -4.4973362237215042e-03</internalNodes>
          <leafValues>
            -6.8982362747192383e-01 1.6406381130218506e-01</leafValues></_>
        <_>
          <internalNodes>
            0 -1 36 1.7386293038725853e-03</internalNodes>
          <leafValues>
            -1.8866616487503052e-01 6.1674630641937256e-01</leafValues></_>
        <_>
          <internalNodes>
            0 -1 44 3.5347286611795425e-03</internalNodes>
          <leafValues>
            1.5547165274620056e-01 -8.0910056829452515e-01</leafValues></_>
        <_>
          <internalNodes>
            0 -1 38 -1.4197344426065683e-03</internalNodes>
          <leafValues>
            -7.2251003980636597e-01 1.2682776153087616e-01</leafValues></_>
        <_>
          <internalNodes>
            0 -1 37 1.7379298806190491e-03</internalNodes>
          <leafValues>
            1.6550961136817932e-01 -7.1093446016311646e-01</leafValues></_>
        <_>
          <internalNodes>
            0 -1 23 -2.1018927916884422e-02</internalNodes>
          <leafValues>
            7.9930931329727173e-01 -1.6382355988025665e-01</leafValues></_>
        <_>
          <internalNodes>
            0 -1 85 2.9217670671641827e-03</internalNodes>
          <leafValues>
            -1.5125438570976257e-01 8.4308212995529175e-01</leafValues></_>
        <_>
          <internalNodes>
            0 -1 71 -1.6502320067957044e-03</internalNodes>
          <leafValues>
            -8.4242039918899536e-01 1.6259182989597321e-01</leafValues></_>
        <_>
          <internalNodes>
            0 -1 11 -1.1621315032243729e-02</internalNodes>
          <leafValues>
            -3.2699894905090332e-01 3.5369303822517395e-01</leafValues></_>
        <_>
          <internalNodes>
            0 -1 9 -5.9366796631366014e-04</internalNodes>
          <leafValues>
            6.8931430578231812e-01 -1.9379073381423950e-01</leafValues></_>
        <_>
          <internalNodes>
            0 -1 26 1.7629673238843679e-03</internalNodes>
          <leafValues>
            1.6529351472854614e-01 -7.4708527326583862e-01</leafValues></_>
        <_>
          <internalNodes>
            0 -1 24 -1.8611599225550890e-03</internalNodes>
          <leafValues>
            -7.9807657003402710e-01 1.3603909313678741e-01</leafValues></_></weakClassifiers></_>
    <!-- stage 4 -->
    <_>
      <maxWeakCount>21</maxWeakCount>
      <stageThreshold>-1.1648893356323242e+00</stageThreshold>
      <weakClassifiers>
        <_>
          <internalNodes>
            0 -1 77 2.1598380990326405e-03</internalNodes>
          <leafValues>
            3.4826883673667908e-01 -8.8976377248764038e-01</leafValues></_>
        <_>
          <internalNodes>
            0 -1 8 3.5517871379852295e-02</internalNodes>
          <leafValues>
            -2.1643105149269104e-01 5.2884471416473389e-01</leafValues></_>
        <_>
          <internalNodes>
            0 -1 80 2.1351904142647982e-03</internalNodes>
          <leafValues>
            1.1392255872488022e-01 -8.2203739881515503e-01</leafValues></_>
        <_>
          <internalNodes>
            0 -1 78 -3.5875323228538036e-03</internalNodes>
          <leafValues>
            4.3157723546028137e-01 -2.3371641337871552e-01</leafValues></_>
        <_>
          <internalNodes>
            0 -1 64 -2.9926649294793606e-03</internalNodes>
          <leafValues>
            -7.0864450931549072e-01 1.2844553589820862e-01</leafValues></_>
        <_>
          <internalNodes>
            0 -1 68 1.0623808484524488e-03</internalNodes>
          <leafValues>
            1.0251145064830780e-01 -7.7381962537765503e-01</leafValues></_>
        <_>
          <internalNodes>
            0 -1 75 -1.1010310612618923e-02</internalNodes>
          <leafValues>
            6.0674101114273071e-01 -2.0826011896133423e-01</leafValues></_>
        <_>
          <internalNodes>
            0 -1 20 1.0556731373071671e-02</internalNodes>
          <leafValues>
            1.5022514760494232e-01 -7.9478830099105835e-01</leafValues></_>
        <_>
          <internalNodes>
            0 -1 47 -1.5363639977294952e-04</internalNodes>
          <leafValues>
            5.2821332216262817e-01 -1.8536965548992157e-01</leafValues></_>
        <_>
          <internalNodes>
            0 -1 52 1.8534609116613865e-03</internalNodes>
          <leafValues>
            1.4482662081718445e-01 -6.8080127239227295e-01</leafValues></_>
        <_>
          <internalNodes>
            0 -1 76 9.4997033011168242e-04</internalNodes>
          <leafValues>
            -2.9295101761817932e-01 3.6777302622795105e-01</leafValues></_>
        <_>
          <internalNodes>
            0 -1 88 -3.0103861354291439e-03</internalNodes>
          <leafValues>
            4.7711670398712158e-01 -1.9322554767131805e-01</leafValues></_>
        <_>
          <internalNodes>
            0 -1 63 -1.8747391877695918e-03</internalNodes>
          <leafValues>
            -7.4648189544677734e-01 1.3346929848194122e-01</leafValues></_>
        <_>
          <internalNodes>
            0 -1 59 -1.1762261390686035e-02</internalNodes>
          <leafValues>
            5.0369668006896973e-01 -2.0265160501003265e-01</leafValues></_>
        <_>
          <internalNodes>
            0 -1 53 -1.8644148076418787e-04</internalNodes>
          <leafValues>
            3.8862514495849609e-01 -2.8308004140853882e-01</leafValues></_>
        <_>
          <internalNodes>
            0 -1 70 -8.4928073920309544e-04</internalNodes>
          <leafValues>
            -6.3368672132492065e-01 1.5334682166576385e-01</leafValues></_>
        <_>
          <internalNodes>
            0 -1 17 1.2177489697933197e-03</internalNodes>
          <leafValues>
            -1.8485231697559357e-01 6.4872080087661743e-01</leafValues></_>
        <_>
          <internalNodes>
            0 -1 86 1.5883136074990034e-03</internalNodes>
          <leafValues>
            1.6199699044227600e-01 -6.5923196077346802e-01</leafValues></_>
        <_>
          <internalNodes>
            0 -1 82 7.8512261097785085e-05</internalNodes>
          <leafValues>
            -2.5765803456306458e-01 4.0771526098251343e-01</leafValues></_>
        <_>
          <internalNodes>
            0 -1 87 5.4669173550792038e-05</internalNodes>
          <leafValues>
            -1.7796401679515839e-01 5.4919135570526123e-01</leafValues></_>
        <_>
          <internalNodes>
            0 -1 6 -1.4880989491939545e-01</internalNodes>
          <leafValues>
            -7.8082871437072754e-01 1.3054953515529633e-01</leafValues></_></weakClassifiers></_></stages>
  <features>
    <_>
      <rects>
        <_>
          0 8 12 12 -1.</_>
        <_>
          0 8 6 6 2.</_>
        <_>
          6 14 6 6 2.</_></rects>
      <tilted>0</tilted></_>
    <_>
      <rects>
        <_>
          0 14 4 20 -1.</_>
        <_>
          0 14 2 10 2.</_>
        <_>
          2 24 2 10 2.</_></rects>
      <tilted>0</tilted></_>
    <_>
      <rects>
        <_>
          0 14 4 30 -1.</_>
        <_>
          0 14 2 15 2.</_>
        <_>
          2 29 2 15 2.</_></rects>
      <tilted>0</tilted></_>
    <_>
      <rects>
        <_>
          0 15 6 6 -1.</_>
        <_>
          0 15 3 3 2.</_>
        <_>
          3 18 3 3 2.</_></rects>
      <tilted>0</tilted></_>
    <_>
      <rects>
        <_>
          0 23 2 24 -1.</_>
        <_>
          0 23 1 12 2.</_>
        <_>
          1 35 1 12 2.</_></rects>
      <tilted>0</tilted></_>
    <_>
      <rects>
        <_>
          0 27 6 8 -1.</_>
        <_>
          0 27 3 4 2.</_>
        <_>
          3 31 3 4 2.</_></rects>
      <tilted>0</tilted></_>
    <_>
      <rects>
        <_>
          1 3 29 36 -1.</_>
        <_>
          1 15 29 12 3.</_></rects>
      <tilted>0</tilted></_>
    <_>
      <rects>
        <_>
          1 33 2 8 -1.</_>
        <_>
          1 33 1 4 2.</_>
        <_>
          2 37 1 4 2.</_></rects>
      <tilted>0</tilted></_>
    <_>
      <rects>
        <_>
          2 0 37 18 -1.</_>
        <_>
          2 9 37 9 2.</_></rects>
      <tilted>0</tilted></_>
    <_>
      <rects>
        <_>
          2 9 16 2 -1.</_>
        <_>
          2 9 8 1 2.</_>
        <_>
          10 10 8 1 2.</_></rects>
      <tilted>0</tilted></_>
    <_>
      <rects>
        <_>
          2 15 4 6 -1.</_>
        <_>
          2 15 2 3 2.</_>
        <_>
          4 18 2 3 2.</_></rects>
      <tilted>0</tilted></_>
    <_>
      <rects>
        <_>
          4 15 8 20 -1.</_>
        <_>
          4 25 8 10 2.</_></rects>
      <tilted>0</tilted></_>
    <_>
      <rects>
        <_>
          5 11 8 8 -1.</_>
        <_>
          5 11 4 4 2.</_>
        <_>
          9 15 4 4 2.</_></rects>
      <tilted>0</tilted></_>
    <_>
      <rects>
        <_>
          6 31 4 2 -1.</_>
        <_>
          6 32 4 1 2.</_></rects>
      <tilted>0</tilted></_>
    <_>
      <rects>
        <_>
          7 0 12 50 -1.</_>
        <_>
          7 25 12 25 2.</_></rects>
      <tilted>0</tilted></_>
    <_>
      <rects>
        <_>
          8 16 15 23 -1.</_>
        <_>
          13 16 5 23 3.</_></rects>
      <tilted>0</tilted></_>
    <_>
      <rects>
        <_>
          9 31 4 4 -1.</_>
        <_>
          9 33 4 2 2.</_></rects>
      <tilted>0</tilted></_>
    <_>
      <rects>
        <_>
          9 35 1 12 -1.</_>
        <_>
          9 39 1 4 3.</_></rects>
      <tilted>0</tilted></_>
    <_>
      <rects>
        <_>
          10 14 3 24 -1.</_>
        <_>
          11 14 1 24 3.</_></rects>
      <tilted>0</tilted></_>
    <_>
      <rects>
        <_>
          10 14 21 20 -1.</_>
        <_>
          17 14 7 20 3.</_></rects>
      <tilted>0</tilted></_>
    <_>
      <rects>
        <_>
          10 16 9 19 -1.</_>
        <_>
          13 16 3 19 3.</_></rects>
      <tilted>0</tilted></_>
    <_>
      <rects>
        <_>
          11 14 18 18 -1.</_>
        <_>
          17 14 6 18 3.</_></rects>
      <tilted>0</tilted></_>
    <_>
      <rects>
        <_>
          11 25 6 2 -1.</_>
        <_>
          11 25 3 1 2.</_>
        <_>
          14 26 3 1 2.</_></rects>
      <tilted>0</tilted></_>
    <_>
      <rects>
        <_>
          12 8 32 10 -1.</_>
        <_>
          12 8 16 5 2.</_>
        <_>
          28 13 16 5 2.</_></rects>
      <tilted>0</tilted></_>
    <_>
      <rects>
        <_>
          13 13 3 24 -1.</_>
        <_>
          14 13 1 24 3.</_></rects>
      <tilted>0</tilted></_>
    <_>
      <rects>
        <_>
          13 13 15 22 -1.</_>
        <_>
          18 13 5 22 3.</_></rects>
      <tilted>0</tilted></_>
    <_>
      <rects>
        <_>
          13 14 3 24 -1.</_>
        <_>
          14 14 1 24 3.</_></rects>
      <tilted>0</tilted></_>
    <_>
      <rects>
        <_>
          14 11 12 33 -1.</_>
        <_>
          18 11 4 33 3.</_></rects>
      <tilted>0</tilted></_>
    <_>
      <rects>
        <_>
          14 14 3 23 -1.</_>
        <_>
          15 14 1 23 3.</_></rects>
      <tilted>0</tilted></_>
    <_>
      <rects>
        <_>
          14 17 3 12 -1.</_>
        <_>
          15 17 1 12 3.</_></rects>
      <tilted>0</tilted></_>
    <_>
      <rects>
        <_>
          14 17 15 16 -1.</_>
        <_>
          19 17 5 16 3.</_></rects>
      <tilted>0</tilted></_>
    <_>
      <rects>
        <_>
          15 28 1 2 -1.</_>
        <_>
          15 29 1 1 2.</_></rects>
      <tilted>0</tilted></_>
    <_>
      <rects>
        <_>
          17 4 23 46 -1.</_>
        <_>
          17 27 23 23 2.</_></rects>
      <tilted>0</tilted></_>
    <_>
      <rects>
        <_>
          17 9 12 32 -1.</_>
        <_>
          21 9 4 32 3.</_></rects>
      <tilted>0</tilted></_>
    <_>
      <rects>
        <_>
          17 13 15 13 -1.</_>
        <_>
          22 13 5 13 3.</_></rects>
      <tilted>0</tilted></_>
    <_>
      <rects>
        <_>
          18 4 10 16 -1.</_>
        <_>
          18 12 10 8 2.</_></rects>
      <tilted>0</tilted></_>
    <_>
      <rects>
        <_>
          18 8 22 4 -1.</_>
        <_>
          18 8 11 2 2.</_>
        <_>
          29 10 11 2 2.</_></rects>
      <tilted>0</tilted></_>
    <_>
      <rects>
        <_>
          18 12 3 25 -1.</_>
        <_>
          19 12 1 25 3.</_></rects>
      <tilted>0</tilted></_>
    <_>
      <rects>
        <_>
          18 14 3 21 -1.</_>
        <_>
          19 14 1 21 3.</_></rects>
      <tilted>0</tilted></_>
    <_>
      <rects>
        <_>
          19 3 14 16 -1.</_>
        <_>
          19 11 14 8 2.</_></rects>
      <tilted>0</tilted></_>
    <_>
      <rects>
        <_>
          20 10 1 3 -1.</_>
        <_>
          20 11 1 1 3.</_></rects>
      <tilted>0</tilted></_>
    <_>
      <rects>
        <_>
          20 17 3 12 -1.</_>
        <_>
          21 17 1 12 3.</_></rects>
      <tilted>0</tilted></_>
    <_>
      <rects>
        <_>
          20 17 18 13 -1.</_>
        <_>
          26 17 6 13 3.</_></rects>
      <tilted>0</tilted></_>
    <_>
      <rects>
        <_>
          21 12 15 19 -1.</_>
        <_>
          26 12 5 19 3.</_></rects>
      <tilted>0</tilted></_>
    <_>
      <rects>
        <_>
          22 13 6 14 -1.</_>
        <_>
          24 13 2 14 3.</_></rects>
      <tilted>0</tilted></_>
    <_>
      <rects>
        <_>
          22 30 1 2 -1.</_>
        <_>
          22 31 1 1 2.</_></rects>
      <tilted>0</tilted></_>
    <_>
      <rects>
        <_>
          22 30 4 2 -1.</_>
        <_>
          22 30 2 1 2.</_>
        <_>
          24 31 2 1 2.</_></rects>
      <tilted>0</tilted></_>
    <_>
      <rects>
        <_>
          22 32 2 2 -1.</_>
        <_>
          22 33 2 1 2.</_></rects>
      <tilted>0</tilted></_>
    <_>
      <rects>
        <_>
          23 14 3 21 -1.</_>
        <_>
          24 14 1 21 3.</_></rects>
      <tilted>0</tilted></_>
    <_>
      <rects>
        <_>
          23 16 18 20 -1.</_>
        <_>
          29 16 6 20 3.</_></rects>
      <tilted>0</tilted></_>
    <_>
      <rects>
        <_>
          23 25 2 2 -1.</_>
        <_>
          23 26 2 1 2.</_></rects>
      <tilted>0</tilted></_>
    <_>
      <rects>
        <_>
          24 13 3 18 -1.</_>
        <_>
          25 13 1 18 3.</_></rects>
      <tilted>0</tilted></_>
    <_>
      <rects>
        <_>
          24 14 3 27 -1.</_>
        <_>
          25 14 1 27 3.</_></rects>
      <tilted>0</tilted></_>
    <_>
      <rects>
        <_>
          24 22 2 6 -1.</_>
        <_>
          24 24 2 2 3.</_></rects>
      <tilted>0</tilted></_>
    <_>
      <rects>
        <_>
          24 24 2 6 -1.</_>
        <_>
          24 26 2 2 3.</_></rects>
      <tilted>0</tilted></_>
    <_>
      <rects>
        <_>
          24 26 3 11 -1.</_>
        <_>
          25 26 1 11 3.</_></rects>
      <tilted>0</tilted></_>
    <_>
      <rects>
        <_>
          24 26 4 2 -1.</_>
        <_>
          24 26 2 1 2.</_>
        <_>
          26 27 2 1 2.</_></rects>
      <tilted>0</tilted></_>
    <_>
      <rects>
        <_>
          25 13 13 28 -1.</_>
        <_>
          25 27 13 14 2.</_></rects>
      <tilted>0</tilted></_>
    <_>
      <rects>
        <_>
          25 15 9 16 -1.</_>
        <_>
          28 15 3 16 3.</_></rects>
      <tilted>0</tilted></_>
    <_>
      <rects>
        <_>
          25 21 9 10 -1.</_>
        <_>
          25 26 9 5 2.</_></rects>
      <tilted>0</tilted></_>
    <_>
      <rects>
        <_>
          25 35 1 2 -1.</_>
        <_>
          25 36 1 1 2.</_></rects>
      <tilted>0</tilted></_>
    <_>
      <rects>
        <_>
          26 8 4 12 -1.</_>
        <_>
          26 14 4 6 2.</_></rects>
      <tilted>0</tilted></_>
    <_>
      <rects>
        <_>
          26 8 10 12 -1.</_>
        <_>
          26 12 10 4 3.</_></rects>
      <tilted>0</tilted></_>
    <_>
      <rects>
        <_>
          26 13 2 30 -1.</_>
        <_>
          26 13 1 15 2.</_>
        <_>
          27 28 1 15 2.</_></rects>
      <tilted>0</tilted></_>
    <_>
      <rects>
        <_>
          27 1 3 41 -1.</_>
        <_>
          28 1 1 41 3.</_></rects>
      <tilted>0</tilted></_>
    <_>
      <rects>
        <_>
          27 11 6 28 -1.</_>
        <_>
          29 11 2 28 3.</_></rects>
      <tilted>0</tilted></_>
    <_>
      <rects>
        <_>
          27 16 6 2 -1.</_>
        <_>
          27 16 3 1 2.</_>
        <_>
          30 17 3 1 2.</_></rects>
      <tilted>0</tilted></_>
    <_>
      <rects>
        <_>
          27 17 12 20 -1.</_>
        <_>
          31 17 4 20 3.</_></rects>
      <tilted>0</tilted></_>
    <_>
      <rects>
        <_>
          27 21 3 11 -1.</_>
        <_>
          28 21 1 11 3.</_></rects>
      <tilted>0</tilted></_>
    <_>
      <rects>
        <_>
          28 14 4 12 -1.</_>
        <_>
          30 14 2 12 2.</_></rects>
      <tilted>0</tilted></_>
    <_>
      <rects>
        <_>
          28 22 3 16 -1.</_>
        <_>
          29 22 1 16 3.</_></rects>
      <tilted>0</tilted></_>
    <_>
      <rects>
        <_>
          28 23 3 14 -1.</_>
        <_>
          29 23 1 14 3.</_></rects>
      <tilted>0</tilted></_>
    <_>
      <rects>
        <_>
          29 13 6 24 -1.</_>
        <_>
          32 13 3 24 2.</_></rects>
      <tilted>0</tilted></_>
    <_>
      <rects>
        <_>
          29 27 4 3 -1.</_>
        <_>
          31 27 2 3 2.</_></rects>
      <tilted>0</tilted></_>
    <_>
      <rects>
        <_>
          29 27 5 4 -1.</_>
        <_>
          29 29 5 2 2.</_></rects>
      <tilted>0</tilted></_>
    <_>
      <rects>
        <_>
          29 31 9 12 -1.</_>
        <_>
          29 35 9 4 3.</_></rects>
      <tilted>0</tilted></_>
    <_>
      <rects>
        <_>
          29 32 6 9 -1.</_>
        <_>
          29 35 6 3 3.</_></rects>
      <tilted>0</tilted></_>
    <_>
      <rects>
        <_>
          30 13 3 19 -1.</_>
        <_>
          31 13 1 19 3.</_></rects>
      <tilted>0</tilted></_>
    <_>
      <rects>
        <_>
          30 33 2 16 -1.</_>
        <_>
          30 41 2 8 2.</_></rects>
      <tilted>0</tilted></_>
    <_>
      <rects>
        <_>
          31 15 4 2 -1.</_>
        <_>
          31 15 2 1 2.</_>
        <_>
          33 16 2 1 2.</_></rects>
      <tilted>0</tilted></_>
    <_>
      <rects>
        <_>
          32 10 3 24 -1.</_>
        <_>
          33 10 1 24 3.</_></rects>
      <tilted>0</tilted></_>
    <_>
      <rects>
        <_>
          32 15 6 19 -1.</_>
        <_>
          35 15 3 19 2.</_></rects>
      <tilted>0</tilted></_>
    <_>
      <rects>
        <_>
          32 21 6 1 -1.</_>
        <_>
          34 21 2 1 3.</_></rects>
      <tilted>0</tilted></_>
    <_>
      <rects>
        <_>
          32 25 1 2 -1.</_>
        <_>
          32 26 1 1 2.</_></rects>
      <tilted>0</tilted></_>
    <_>
      <rects>
        <_>
          33 18 3 19 -1.</_>
        <_>
          34 18 1 19 3.</_></rects>
      <tilted>0</tilted></_>
    <_>
      <rects>
        <_>
          34 6 1 14 -1.</_>
        <_>
          34 13 1 7 2.</_></rects>
      <tilted>0</tilted></_>
    <_>
      <rects>
        <_>
          34 16 3 21 -1.</_>
        <_>
          35 16 1 21 3.</_></rects>
      <tilted>0</tilted></_>
    <_>
      <rects>
        <_>
          35 30 1 2 -1.</_>
        <_>
          35 31 1 1 2.</_></rects>
      <tilted>0</tilted></_>
    <_>
      <rects>
        <_>
          37 38 12 4 -1.</_>
        <_>
          43 38 6 4 2.</_></rects>
      <tilted>0</tilted></_>
    <_>
      <rects>
        <_>
          48 26 2 9 -1.</_>
        <_>
          49 26 1 9 2.</_></rects>
      <tilted>0</tilted></_></features></cascade>
</opencv_storage>
